digraph Tree {
node [shape=box, style="rounded", color="black", fontname="helvetica"] ;
edge [fontname="helvetica"] ;
0 [label="O2 <= 10.6\nsquared_error = 0.921\nsamples = 62\nvalue = 2.209"] ;
1 [label="PN <= 0.936\nsquared_error = 0.721\nsamples = 43\nvalue = 2.581"] ;
0 -> 1 [labeldistance=2.5, labelangle=45, headlabel="True"] ;
2 [label="squared_error = 0.501\nsamples = 25\nvalue = 2.273"] ;
1 -> 2 ;
3 [label="squared_error = 0.7\nsamples = 18\nvalue = 3.034"] ;
1 -> 3 ;
4 [label="squared_error = 0.426\nsamples = 19\nvalue = 1.42"] ;
0 -> 4 [labeldistance=2.5, labelangle=-45, headlabel="False"] ;
}